digraph Tree {
node [shape=box, style="filled, rounded", color="black", fontname="helvetica"] ;
edge [fontname="helvetica"] ;
0 [label="petal width (cm) <= 0.8\ngini = 0.67\nsamples = 93\nvalue = [50, 48, 52]\nclass = virginica", fillcolor="#fcfbfe"] ;
1 [label="gini = 0.0\nsamples = 30\nvalue = [50, 0, 0]\nclass = setosa", fillcolor="#e58139"] ;
0 -> 1 [labeldistance=2.5, labelangle=45, headlabel="True"] ;
2 [label="sepal length (cm) <= 7.1\ngini = 0.5\nsamples = 63\nvalue = [0, 48, 52]\nclass = virginica", fillcolor="#f5f0fd"] ;
0 -> 2 [labeldistance=2.5, labelangle=-45, headlabel="False"] ;
3 [label="petal width (cm) <= 1.75\ngini = 0.48\nsamples = 52\nvalue = [0, 48, 32]\nclass = versicolor", fillcolor="#bdf6d5"] ;
2 -> 3 ;
4 [label="sepal length (cm) <= 4.95\ngini = 0.17\nsamples = 34\nvalue = [0, 48, 5]\nclass = versicolor", fillcolor="#4ee88e"] ;
3 -> 4 ;
5 [label="gini = 0.0\nsamples = 1\nvalue = [0, 0, 1]\nclass = virginica", fillcolor="#8139e5"] ;
4 -> 5 ;
6 [label="sepal length (cm) <= 5.95\ngini = 0.14\nsamples = 33\nvalue = [0, 48, 4]\nclass = versicolor", fillcolor="#49e78c"] ;
4 -> 6 ;
7 [label="gini = 0.0\nsamples = 14\nvalue = [0, 20, 0]\nclass = versicolor", fillcolor="#39e581"] ;
6 -> 7 ;
8 [label="petal length (cm) <= 4.9\ngini = 0.22\nsamples = 19\nvalue = [0, 28, 4]\nclass = versicolor", fillcolor="#55e993"] ;
6 -> 8 ;
9 [label="gini = 0.0\nsamples = 14\nvalue = [0, 24, 0]\nclass = versicolor", fillcolor="#39e581"] ;
8 -> 9 ;
10 [label="sepal width (cm) <= 2.65\ngini = 0.5\nsamples = 5\nvalue = [0, 4, 4]\nclass = versicolor", fillcolor="#ffffff"] ;
8 -> 10 ;
11 [label="gini = 0.0\nsamples = 2\nvalue = [0, 0, 2]\nclass = virginica", fillcolor="#8139e5"] ;
10 -> 11 ;
12 [label="petal width (cm) <= 1.55\ngini = 0.44\nsamples = 3\nvalue = [0, 4, 2]\nclass = versicolor", fillcolor="#9cf2c0"] ;
10 -> 12 ;
13 [label="gini = 0.0\nsamples = 1\nvalue = [0, 0, 2]\nclass = virginica", fillcolor="#8139e5"] ;
12 -> 13 ;
14 [label="gini = 0.0\nsamples = 2\nvalue = [0, 4, 0]\nclass = versicolor", fillcolor="#39e581"] ;
12 -> 14 ;
15 [label="gini = 0.0\nsamples = 18\nvalue = [0, 0, 27]\nclass = virginica", fillcolor="#8139e5"] ;
3 -> 15 ;
16 [label="gini = 0.0\nsamples = 11\nvalue = [0, 0, 20]\nclass = virginica", fillcolor="#8139e5"] ;
2 -> 16 ;
}